FANN_FLO_2.1
num_layers=3
learning_rate=0.700000
connection_rate=1.000000
network_type=0
learning_momentum=0.000000
training_algorithm=2
train_error_function=1
train_stop_function=0
cascade_output_change_fraction=0.010000
quickprop_decay=-0.000100
quickprop_mu=1.750000
rprop_increase_factor=1.200000
rprop_decrease_factor=0.500000
rprop_delta_min=0.000000
rprop_delta_max=50.000000
rprop_delta_zero=0.100000
cascade_output_stagnation_epochs=12
cascade_candidate_change_fraction=0.010000
cascade_candidate_stagnation_epochs=12
cascade_max_out_epochs=150
cascade_min_out_epochs=50
cascade_max_cand_epochs=150
cascade_min_cand_epochs=50
cascade_num_candidate_groups=2
bit_fail_limit=3.49999999999999980000e-001
cascade_candidate_limit=1.00000000000000000000e+003
cascade_weight_multiplier=4.00000000000000020000e-001
cascade_activation_functions_count=10
cascade_activation_functions=3 5 7 8 10 11 14 15 16 17 
cascade_activation_steepnesses_count=4
cascade_activation_steepnesses=2.50000000000000000000e-001 5.00000000000000000000e-001 7.50000000000000000000e-001 1.00000000000000000000e+000 
layer_sizes=2 7 2 
scale_included=0
neurons (num_inputs, activation_function, activation_steepness)=(0, 0, 0.00000000000000000000e+000) (0, 0, 0.00000000000000000000e+000) (2, 5, 5.00000000000000000000e-001) (2, 5, 5.00000000000000000000e-001) (2, 5, 5.00000000000000000000e-001) (2, 5, 5.00000000000000000000e-001) (2, 5, 5.00000000000000000000e-001) (2, 5, 5.00000000000000000000e-001) (0, 5, 0.00000000000000000000e+000) (7, 5, 5.00000000000000000000e-001) (0, 5, 0.00000000000000000000e+000) 
connections (connected_to_neuron, weight)=(0, 2.67950618379629520000e-001) (1, 3.09740222714631470000e-001) (0, 2.71981064070800430000e+000) (1, -3.98355539223772450000e+000) (0, -1.05645962406942550000e-001) (1, 2.74992037781778440000e-001) (0, 7.35489153812645210000e+000) (1, -2.73911313336179060000e+000) (0, -2.39884176426529770000e+000) (1, 1.03239436672606500000e+001) (0, 2.84872479397438090000e-001) (1, 3.37924818449196140000e-001) (2, 4.91003542477712330000e-001) (3, 5.14835759231213870000e+000) (4, 7.87919147303923210000e+001) (5, 1.09532213405932240000e+000) (6, -6.75620848423511510000e+000) (7, 6.64627835377284650000e-001) (8, 1.94437392007471610000e+000) 
